Language model created by QuickLM on Fri Feb 20 09:15:28 EST 2015
Copyright (c) 1996-2010 Carnegie Mellon University and Alexander I. Rudnicky

The model is in standard ARPA format, designed by Doug Paul while he was at MITRE.

The code that was used to produce this language model is available in Open Source.
Please visit http://www.speech.cs.cmu.edu/tools/ for more information

The (fixed) discount mass is 0.5. The backoffs are computed using the ratio method.
This model based on a corpus of 5 sentences and 7 words

\data\
ngram 1=7
ngram 2=10
ngram 3=5

\1-grams:
-0.7782 </s> -0.3010
-0.7782 <s> -0.2218
-1.4771 ARCHITECTURE -0.2218
-1.4771 CATEGORY -0.2218
-1.4771 DEMONSTRATION -0.2218
-1.4771 MEMORABLE -0.2218
-1.4771 TESTIMONY -0.2218

\2-grams:
-1.0000 <s> ARCHITECTURE 0.0000
-1.0000 <s> CATEGORY 0.0000
-1.0000 <s> DEMONSTRATION 0.0000
-1.0000 <s> MEMORABLE 0.0000
-1.0000 <s> TESTIMONY 0.0000
-0.3010 ARCHITECTURE </s> -0.3010
-0.3010 CATEGORY </s> -0.3010
-0.3010 DEMONSTRATION </s> -0.3010
-0.3010 MEMORABLE </s> -0.3010
-0.3010 TESTIMONY </s> -0.3010

\3-grams:
-0.3010 <s> ARCHITECTURE </s>
-0.3010 <s> CATEGORY </s>
-0.3010 <s> DEMONSTRATION </s>
-0.3010 <s> MEMORABLE </s>
-0.3010 <s> TESTIMONY </s>

\end\
